<?xml version="1.0" encoding="ISO-8859-1"?>
<smile version="1.0" id="Network2" numsamples="1000" discsamples="10000">
	<nodes>
		<cpt id="TITLE">
			<state id="State0" />
			<state id="State1" />
			<state id="State2" />
			<state id="State3" />
			<state id="State4" />
			<state id="State5" />
			<state id="State6" />
			<state id="State7" />
			<state id="State8" />
			<state id="State9" />
			<state id="State10" />
			<state id="State11" />
			<state id="State12" />
			<state id="State13" />
			<state id="State14" />
			<state id="State15" />
			<state id="State16" />
			<state id="State17" />
			<state id="State18" />
			<state id="State19" />
			<state id="State20" />
			<state id="State21" />
			<state id="State22" />
			<state id="State23" />
			<state id="State24" />
			<state id="State25" />
			<state id="State26" />
			<state id="State27" />
			<state id="State28" />
			<state id="State29" />
			<state id="State30" />
			<state id="State31" />
			<state id="State32" />
			<state id="State33" />
			<state id="State34" />
			<state id="State35" />
			<state id="State36" />
			<state id="State37" />
			<state id="State38" />
			<state id="State39" />
			<state id="State40" />
			<state id="State41" />
			<state id="State42" />
			<state id="State43" />
			<state id="State44" />
			<state id="State45" />
			<state id="State46" />
			<state id="State47" />
			<state id="State48" />
			<state id="State49" />
			<state id="State50" />
			<state id="State51" />
			<state id="State52" />
			<state id="State53" />
			<state id="State54" />
			<state id="State55" />
			<probabilities>0.01785715892789326 0.01785715892789326 0.01785712142947569 0.01785712142947569 0.01785712142947569 0.01785712142947569 0.01785712142947569 0.01785712142947569 0.01785712142947569 0.01785712142947569 0.01785712142947569 0.01785712142947569 0.01785712142947569 0.01785712142947569 0.01785712142947569 0.01785712142947569 0.01785712142947569 0.01785712142947569 0.01785712142947569 0.01785712142947569 0.01785712142947569 0.01785712142947569 0.01785712142947569 0.01785712142947569 0.01785712142947569 0.01785712142947569 0.01785712142947569 0.01785712142947569 0.01785712142947569 0.01785712142947569 0.01785712142947569 0.01785712142947569 0.01785719642631083 0.01785712142947569 0.01785712142947569 0.01785712142947569 0.01785712142947569 0.01785712142947569 0.01785712142947569 0.01785712142947569 0.01785712142947569 0.01785712142947569 0.01785712142947569 0.01785712142947569 0.01785712142947569 0.01785712142947569 0.01785712142947569 0.01785712142947569 0.01785712142947569 0.01785712142947569 0.01785817138516756 0.01785712142947569 0.01785712142947569 0.01785712142947569 0.01785712142947569 0.01785712142947569</probabilities>
		</cpt>
		<cpt id="YEAR">
			<state id="State0" />
			<state id="State1" />
			<state id="State2" />
			<state id="State3" />
			<state id="State4" />
			<state id="State5" />
			<state id="State6" />
			<parents>TITLE</parents>
			<probabilities>0.8767417175709482 0.07109388637527281 0.008551114452128797 0.03246841624970703 0.01098845432500538 0.0001564110269380084 0 0.9392417175709482 0.008593886375272771 0.008551114452128797 0.03246841624970703 0.01098845432500538 0.0001564110269380084 0 0.001741717570948019 0.008593886375272771 0.008551114452128797 0.9699684162497072 0.01098845432500538 0.0001564110269380084 0 0.001741717570948019 0.008593886375272771 0.008551114452128797 0.9699684162497072 0.01098845432500538 0.0001564110269380084 0 0.001741717570948019 0.07109388637527281 0.883551114452129 0.03246841624970703 0.01098845432500538 0.0001564110269380084 0 0.001741717570948019 0.00859388637527277 0.008551114452128795 0.03246841624970705 0.07348845432500541 0.0001564110269380084 0.875 0.001741717570948019 0.00859388637527277 0.008551114452128795 0.09496841624970705 0.01098845432500539 0.0001564110269380084 0.875 0.001741717570948019 0.00859388637527277 0.008551114452128795 0.09496841624970701 0.8859884543250054 0.0001564110269380084 0 0.001741717570948019 0.883593886375273 0.008551114452128797 0.03246841624970703 0.07348845432500542 0.0001564110269380084 0 0.001741717570948019 0.00859388637527277 0.008551114452128795 0.09496841624970701 0.8859884543250054 0.0001564110269380084 0 0.001741717570948019 0.00859388637527277 0.07105111445212881 0.03246841624970703 0.8859884543250054 0.0001564110269380084 0 0.001741717570948019 0.07109388637527281 0.008551114452128797 0.9074684162497072 0.01098845432500538 0.0001564110269380084 0 0.001741717570948019 0.008593886375272771 0.883551114452129 0.03246841624970703 0.07348845432500542 0.0001564110269380084 0 0.8767417175709482 0.07109388637527281 0.008551114452128797 0.03246841624970703 0.01098845432500538 0.0001564110269380084 0 0.001741717570948019 0.00859388637527277 0.008551114452128795 0.03246841624970705 0.07348845432500541 0.875156411026938 0 0.001741717570948019 0.883593886375273 0.008551114452128797 0.09496841624970703 0.01098845432500538 0.0001564110269380084 0 0.001741717570948019 0.00859388637527277 0.008551114452128795 0.09496841624970705 0.01098845432500539 0.875156411026938 0 0.001741717570948019 0.008593886375272771 0.008551114452128797 0.9699684162497072 0.01098845432500538 0.0001564110269380084 0 0.001741717570948019 0.008593886375272771 0.008551114452128797 0.9699684162497072 0.01098845432500538 0.0001564110269380084 0 0.001741717570948019 0.008593886375272771 0.008551114452128797 0.9074684162497072 0.07348845432500542 0.0001564110269380084 0 0.001741717570948019 0.00859388637527277 0.07105111445212881 0.03246841624970703 0.8859884543250054 0.0001564110269380084 0 0.001741717570948019 0.00859388637527277 0.008551114452128795 0.09496841624970705 0.01098845432500539 0.0001564110269380084 0.875 0.001741717570948019 0.00859388637527277 0.008551114452128795 0.09496841624970705 0.01098845432500539 0.875156411026938 0 0.001741717570948019 0.00859388637527277 0.008551114452128795 0.09496841624970701 0.8859884543250054 0.0001564110269380084 0 0.001741717570948019 0.00859388637527277 0.008551114452128795 0.09496841624970701 0.8859884543250054 0.0001564110269380084 0 0.001741717570948019 0.00859388637527277 0.008551114452128795 0.09496841624970705 0.01098845432500539 0.875156411026938 0 0.001741717570948019 0.00859388637527277 0.07105111445212881 0.03246841624970705 0.01098845432500539 0.0001564110269380084 0.875 0.001741717570948019 0.07109388637527279 0.008551114452128795 0.03246841624970705 0.01098845432500539 0.0001564110269380084 0.875 0.001741717570948019 0.00859388637527277 0.008551114452128795 0.09496841624970701 0.8859884543250054 0.0001564110269380084 0 0.8767417175709482 0.07109388637527281 0.008551114452128797 0.03246841624970703 0.01098845432500538 0.0001564110269380084 0 0.001741717570948019 0.00859388637527277 0.008551114452128795 0.09496841624970705 0.01098845432500539 0.0001564110269380084 0.875 0.001741717570948019 0.00859388637527277 0.008551114452128795 0.09496841624970705 0.01098845432500539 0.875156411026938 0 0.001161145047298679 0.00572925758351518 0.04736740963475253 0.06331227749980466 0.007325636216670255 0.0001042740179586723 0.875 0.001741717570948019 0.008593886375272771 0.008551114452128797 0.9699684162497072 0.01098845432500538 0.0001564110269380084 0 0.001741717570948019 0.00859388637527277 0.008551114452128795 0.09496841624970705 0.01098845432500539 0.0001564110269380084 0.875 0.001741717570948019 0.00859388637527277 0.008551114452128795 0.09496841624970705 0.01098845432500539 0.0001564110269380084 0.875 0.001741717570948019 0.00859388637527277 0.008551114452128795 0.09496841624970701 0.8859884543250054 0.0001564110269380084 0 0.001741717570948019 0.00859388637527277 0.008551114452128795 0.03246841624970705 0.07348845432500541 0.875156411026938 0 0.001741717570948019 0.00859388637527277 0.008551114452128795 0.09496841624970705 0.01098845432500539 0.875156411026938 0 0.001741717570948019 0.00859388637527277 0.008551114452128795 0.09496841624970705 0.01098845432500539 0.0001564110269380084 0.875 0.001741717570948019 0.00859388637527277 0.07105111445212881 0.03246841624970705 0.01098845432500539 0.875156411026938 0 0.001741717570948019 0.008593886375272771 0.008551114452128797 0.9699684162497072 0.01098845432500538 0.0001564110269380084 0 0.001741717570948019 0.008593886375272771 0.883551114452129 0.09496841624970703 0.01098845432500538 0.0001564110269380084 0 0.001741717570948019 0.00859388637527277 0.008551114452128795 0.03246841624970705 0.07348845432500541 0.0001564110269380084 0.875 0.001741717570948019 0.00859388637527277 0.008551114452128795 0.09496841624970705 0.01098845432500539 0.0001564110269380084 0.875 0.001741717570948019 0.008593886375272771 0.07105111445212882 0.9074684162497072 0.01098845432500538 0.0001564110269380084 0 0.001741717570948019 0.00859388637527277 0.07105111445212881 0.03246841624970705 0.01098845432500539 0.875156411026938 0 0.001741717570948019 0.07109388637527279 0.008551114452128795 0.03246841624970703 0.8859884543250054 0.0001564110269380084 0 0.001741717570948019 0.00859388637527277 0.008551114452128795 0.03246841624970703 0.9484884543250054 0.0001564110269380084 0 0.001741717570948019 0.00859388637527277 0.07105111445212881 0.03246841624970705 0.01098845432500539 0.0001564110269380084 0.875 0.001741717570948019 0.00859388637527277 0.008551114452128795 0.09496841624970705 0.01098845432500539 0.0001564110269380084 0.875 0.001741717570948019 0.008593886375272771 0.008551114452128797 0.9699684162497072 0.01098845432500538 0.0001564110269380084 0 0.001741717570948019 0.00859388637527277 0.008551114452128795 0.09496841624970705 0.01098845432500539 0.0001564110269380084 0.875 0.001741717570948019 0.883593886375273 0.008551114452128797 0.09496841624970703 0.01098845432500538 0.0001564110269380084 0 0.001741717570948019 0.07109388637527281 0.008551114452128797 0.9074684162497072 0.01098845432500538 0.0001564110269380084 0 0.001741717570948019 0.00859388637527277 0.008551114452128795 0.09496841624970701 0.8859884543250054 0.0001564110269380084 0</probabilities>
		</cpt>
		<cpt id="LENGTH">
			<state id="State0" />
			<state id="State1" />
			<state id="State2" />
			<state id="State3" />
			<parents>TITLE</parents>
			<probabilities>0.1455317765716155 0.7739538153214878 0.0711026611624057 0.00941174694449117 0.7705317765716154 0.0239538153214877 0.1961026611624057 0.00941174694449117 0.02053177657161543 0.2114538153214877 0.7586026611624057 0.00941174694449117 0.2080317765716155 0.7739538153214878 0.008602661162405699 0.00941174694449117 0.02053177657161543 0.2114538153214877 0.7586026611624057 0.00941174694449117 0.8330317765716154 0.0239538153214877 0.1336026611624057 0.00941174694449117 0.02053177657161543 0.0239538153214877 0.008602661162405699 0.9469117469444912 0.02053177657161543 0.2114538153214877 0.7586026611624057 0.00941174694449117 0.02053177657161543 0.0864538153214877 0.008602661162405699 0.8844117469444912 0.08303177657161545 0.0239538153214877 0.008602661162405699 0.8844117469444912 0.02053177657161543 0.2114538153214877 0.7586026611624057 0.00941174694449117 0.02053177657161543 0.2114538153214877 0.7586026611624057 0.00941174694449117 0.7705317765716154 0.0239538153214877 0.1961026611624057 0.00941174694449117 0.8330317765716154 0.0239538153214877 0.1336026611624057 0.00941174694449117 0.08303177657161545 0.1489538153214877 0.7586026611624057 0.009411746944491164 0.1455317765716155 0.8364538153214878 0.008602661162405699 0.00941174694449117 0.08303177657161545 0.1489538153214877 0.7586026611624057 0.009411746944491164 0.1455317765716155 0.8364538153214878 0.008602661162405699 0.00941174694449117 0.08303177657161545 0.0239538153214877 0.008602661162405699 0.8844117469444912 0.08303177657161545 0.1489538153214877 0.7586026611624057 0.009411746944491164 0.02053177657161543 0.0239538153214877 0.0711026611624057 0.8844117469444912 0.02053177657161543 0.0239538153214877 0.0711026611624057 0.8844117469444912 0.02053177657161543 0.0864538153214877 0.008602661162405699 0.8844117469444912 0.02053177657161543 0.0864538153214877 0.008602661162405699 0.8844117469444912 0.02053177657161543 0.2114538153214877 0.7586026611624057 0.00941174694449117 0.02053177657161543 0.2114538153214877 0.7586026611624057 0.00941174694449117 0.2080317765716155 0.7739538153214878 0.008602661162405699 0.00941174694449117 0.2080317765716155 0.7739538153214878 0.008602661162405699 0.00941174694449117 0.02053177657161543 0.2114538153214877 0.7586026611624057 0.00941174694449117 0.02053177657161543 0.0864538153214877 0.008602661162405699 0.8844117469444912 0.08303177657161545 0.1489538153214877 0.7586026611624057 0.009411746944491164 0.02053177657161543 0.0864538153214877 0.008602661162405699 0.8844117469444912 0.1803545177144103 0.807635876880992 0.005735107441603801 0.006274497962994117 0.2080317765716155 0.7739538153214878 0.008602661162405699 0.00941174694449117 0.02053177657161543 0.0864538153214877 0.008602661162405699 0.8844117469444912 0.02053177657161543 0.0864538153214877 0.008602661162405699 0.8844117469444912 0.1455317765716155 0.7739538153214878 0.008602661162405699 0.07191174694449121 0.02053177657161543 0.1489538153214877 0.7586026611624057 0.07191174694449121 0.02053177657161543 0.0864538153214877 0.008602661162405699 0.8844117469444912 0.08303177657161545 0.0239538153214877 0.008602661162405699 0.8844117469444912 0.02053177657161543 0.0239538153214877 0.008602661162405699 0.9469117469444912 0.7705317765716154 0.0239538153214877 0.1336026611624057 0.07191174694449121 0.02053177657161543 0.2114538153214877 0.7586026611624057 0.00941174694449117 0.7705317765716154 0.0864538153214877 0.1336026611624057 0.00941174694449117 0.08303177657161545 0.1489538153214877 0.7586026611624057 0.009411746944491164 0.1455317765716155 0.7739538153214878 0.008602661162405699 0.07191174694449121 0.02053177657161543 0.0864538153214877 0.008602661162405699 0.8844117469444912 0.8330317765716154 0.0239538153214877 0.1336026611624057 0.00941174694449117 0.08303177657161545 0.0239538153214877 0.008602661162405699 0.8844117469444912 0.02053177657161543 0.0239538153214877 0.008602661162405699 0.9469117469444912 0.02053177657161543 0.0864538153214877 0.008602661162405699 0.8844117469444912 0.02053177657161543 0.0239538153214877 0.008602661162405699 0.9469117469444912 0.02053177657161543 0.0239538153214877 0.008602661162405699 0.9469117469444912 0.1455317765716155 0.7739538153214878 0.0711026611624057 0.00941174694449117 0.02053177657161543 0.2114538153214877 0.7586026611624057 0.00941174694449117 0.02053177657161543 0.1489538153214877 0.8211026611624057 0.00941174694449117</probabilities>
		</cpt>
		<cpt id="BUDGET">
			<state id="State0" />
			<state id="State1" />
			<state id="State2" />
			<state id="State3" />
			<parents>TITLE</parents>
			<probabilities>0.002568485141916868 0.001706576811418182 0.9957168010217967 8.137024868223874e-006 0.002568485141916868 0.001706576811418182 0.1207168010217967 0.8750081370248682 0.3775684851419169 0.5017065768114182 0.1207168010217967 8.137024868223874e-006 0.002568485141916868 0.001706576811418182 0.9957168010217967 8.137024868223874e-006 0.002568485141916868 0.001706576811418182 0.9957168010217967 8.137024868223874e-006 0.5025684851419169 0.3767065768114182 0.1207168010217967 8.137024868223874e-006 0.002568485141916868 0.001706576811418182 0.9957168010217967 8.137024868223874e-006 0.3775684851419169 0.5017065768114182 0.1207168010217967 8.137024868223874e-006 0.002568485141916868 0.001706576811418182 0.9957168010217967 8.137024868223874e-006 0.002568485141916868 0.001706576811418182 0.1207168010217967 0.8750081370248682 0.002568485141916868 0.001706576811418182 0.1207168010217967 0.8750081370248682 0.002568485141916868 0.001706576811418182 0.9957168010217967 8.137024868223874e-006 0.002568485141916868 0.001706576811418182 0.1207168010217967 0.8750081370248682 0.002568485141916868 0.001706576811418182 0.1207168010217967 0.8750081370248682 0.5025684851419169 0.3767065768114182 0.1207168010217967 8.137024868223874e-006 0.002568485141916868 0.001706576811418182 0.1207168010217967 0.8750081370248682 0.3775684851419169 0.5017065768114182 0.1207168010217967 8.137024868223874e-006 0.002568485141916868 0.001706576811418182 0.1207168010217967 0.8750081370248682 0.002568485141916868 0.001706576811418182 0.9957168010217967 8.137024868223874e-006 0.002568485141916868 0.001706576811418182 0.1207168010217967 0.8750081370248682 0.002568485141916868 0.001706576811418182 0.9957168010217967 8.137024868223874e-006 0.002568485141916868 0.001706576811418182 0.9957168010217967 8.137024868223874e-006 0.002568485141916868 0.001706576811418182 0.9957168010217967 8.137024868223874e-006 0.002568485141916868 0.001706576811418182 0.9957168010217967 8.137024868223874e-006 0.002568485141916868 0.001706576811418182 0.1207168010217967 0.8750081370248682 0.002568485141916868 0.001706576811418182 0.9957168010217967 8.137024868223874e-006 0.002568485141916868 0.001706576811418182 0.9957168010217967 8.137024868223874e-006 0.002568485141916868 0.001706576811418182 0.9957168010217967 8.137024868223874e-006 0.002568485141916868 0.001706576811418182 0.1207168010217967 0.8750081370248682 0.002568485141916868 0.001706576811418182 0.9957168010217967 8.137024868223874e-006 0.002568485141916868 0.001706576811418182 0.9957168010217967 8.137024868223874e-006 0.002568485141916868 0.001706576811418182 0.9957168010217967 8.137024868223874e-006 0.04337899009461125 0.001137717874278788 0.9554778673478646 5.42468324547796e-006 0.002568485141916868 0.001706576811418182 0.9957168010217967 8.137024868223874e-006 0.002568485141916868 0.001706576811418182 0.9957168010217967 8.137024868223874e-006 0.002568485141916868 0.001706576811418182 0.9957168010217967 8.137024868223874e-006 0.002568485141916868 0.001706576811418182 0.9957168010217967 8.137024868223874e-006 0.002568485141916868 0.001706576811418182 0.9957168010217967 8.137024868223874e-006 0.002568485141916868 0.001706576811418182 0.9957168010217967 8.137024868223874e-006 0.002568485141916868 0.001706576811418182 0.9957168010217967 8.137024868223874e-006 0.002568485141916868 0.001706576811418182 0.9957168010217967 8.137024868223874e-006 0.002568485141916868 0.001706576811418182 0.9957168010217967 8.137024868223874e-006 0.002568485141916868 0.001706576811418182 0.9957168010217967 8.137024868223874e-006 0.002568485141916868 0.001706576811418182 0.1207168010217967 0.8750081370248682 0.002568485141916868 0.001706576811418182 0.9957168010217967 8.137024868223874e-006 0.002568485141916868 0.001706576811418182 0.9957168010217967 8.137024868223874e-006 0.002568485141916868 0.001706576811418182 0.9957168010217967 8.137024868223874e-006 0.5025684851419169 0.3767065768114182 0.1207168010217967 8.137024868223874e-006 0.002568485141916868 0.001706576811418182 0.9957168010217967 8.137024868223874e-006 0.002568485141916868 0.001706576811418182 0.9957168010217967 8.137024868223874e-006 0.0650684851419169 0.001706576811418182 0.9332168010217967 8.137024868230815e-006 0.002568485141916868 0.001706576811418182 0.9957168010217967 8.137024868223874e-006 0.002568485141916868 0.001706576811418182 0.9957168010217967 8.137024868223874e-006 0.002568485141916868 0.001706576811418182 0.9957168010217967 8.137024868223874e-006 0.002568485141916868 0.001706576811418182 0.9957168010217967 8.137024868223874e-006 0.002568485141916868 0.001706576811418182 0.9957168010217967 8.137024868223874e-006</probabilities>
		</cpt>
		<cpt id="RATING">
			<state id="r7" />
			<state id="r8" />
			<state id="r9" />
			<parents>TITLE</parents>
			<probabilities>0.9965864531963574 0.002560184365007715 0.0008533624386349 0.9965864531963574 0.002560184365007715 0.0008533624386349 0.1215864531963574 0.8775601843650076 0.0008533624386348998 0.9965864531963574 0.002560184365007715 0.0008533624386349 0.9965864531963574 0.002560184365007715 0.0008533624386349 0.9965864531963574 0.002560184365007715 0.0008533624386349 0.1215864531963574 0.8775601843650076 0.0008533624386348998 0.9965864531963574 0.002560184365007715 0.0008533624386349 0.1215864531963574 0.8775601843650076 0.0008533624386348998 0.9965864531963574 0.002560184365007715 0.0008533624386349 0.9965864531963574 0.002560184365007715 0.0008533624386349 0.9965864531963574 0.002560184365007715 0.0008533624386349 0.9965864531963574 0.002560184365007715 0.0008533624386349 0.9965864531963574 0.002560184365007715 0.0008533624386349 0.1215864531963574 0.002560184365007716 0.875853362438635 0.9965864531963574 0.002560184365007715 0.0008533624386349 0.9965864531963574 0.002560184365007715 0.0008533624386349 0.1215864531963574 0.8775601843650076 0.0008533624386348998 0.1215864531963574 0.8775601843650076 0.0008533624386348998 0.9965864531963574 0.002560184365007715 0.0008533624386349 0.1215864531963574 0.8775601843650076 0.0008533624386348998 0.9965864531963574 0.002560184365007715 0.0008533624386349 0.9965864531963574 0.002560184365007715 0.0008533624386349 0.9965864531963574 0.002560184365007715 0.0008533624386349 0.9965864531963574 0.002560184365007715 0.0008533624386349 0.9965864531963574 0.002560184365007715 0.0008533624386349 0.9965864531963574 0.002560184365007715 0.0008533624386349 0.9965864531963574 0.002560184365007715 0.0008533624386349 0.1215864531963574 0.8775601843650076 0.0008533624386348998 0.9965864531963574 0.002560184365007715 0.0008533624386349 0.1215864531963574 0.8775601843650076 0.0008533624386348998 0.1215864531963574 0.8775601843650076 0.0008533624386348998 0.997724302130905 0.001706789576671811 0.0005689082924232665 0.9965864531963574 0.002560184365007715 0.0008533624386349 0.1215864531963574 0.8775601843650076 0.0008533624386348998 0.1215864531963574 0.8775601843650076 0.0008533624386348998 0.1215864531963574 0.8775601843650076 0.0008533624386348998 0.9965864531963574 0.002560184365007715 0.0008533624386349 0.1215864531963574 0.8775601843650076 0.0008533624386348998 0.9965864531963574 0.002560184365007715 0.0008533624386349 0.9965864531963574 0.002560184365007715 0.0008533624386349 0.9965864531963574 0.002560184365007715 0.0008533624386349 0.9965864531963574 0.002560184365007715 0.0008533624386349 0.1215864531963574 0.8775601843650076 0.0008533624386348998 0.9965864531963574 0.002560184365007715 0.0008533624386349 0.9965864531963574 0.002560184365007715 0.0008533624386349 0.1215864531963574 0.8775601843650076 0.0008533624386348998 0.05908645319635735 0.06506018436500775 0.8758533624386349 0.1215864531963574 0.8775601843650076 0.0008533624386348998 0.1215864531963574 0.002560184365007716 0.875853362438635 0.1215864531963574 0.8775601843650076 0.0008533624386348998 0.1215864531963574 0.8775601843650076 0.0008533624386348998 0.9965864531963574 0.002560184365007715 0.0008533624386349 0.9965864531963574 0.002560184365007715 0.0008533624386349 0.1215864531963574 0.8775601843650076 0.0008533624386348998 0.9965864531963574 0.002560184365007715 0.0008533624386349</probabilities>
		</cpt>
		<cpt id="ACTION">
			<state id="State0" />
			<state id="State1" />
			<parents>TITLE</parents>
			<probabilities>0.9931563728612325 0.00684362713876755 0.9931563728612325 0.00684362713876755 0.9931563728612325 0.00684362713876755 0.9931563728612325 0.00684362713876755 0.1181563728612325 0.8818436271387675 0.1181563728612325 0.8818436271387675 0.9931563728612325 0.00684362713876755 0.9931563728612325 0.00684362713876755 0.05565637286123245 0.9443436271387676 0.9931563728612325 0.00684362713876755 0.1181563728612325 0.8818436271387675 0.9931563728612325 0.00684362713876755 0.9931563728612325 0.00684362713876755 0.9931563728612325 0.00684362713876755 0.9931563728612325 0.00684362713876755 0.9931563728612325 0.00684362713876755 0.9931563728612325 0.00684362713876755 0.9931563728612325 0.00684362713876755 0.9931563728612325 0.00684362713876755 0.9931563728612325 0.00684362713876755 0.1181563728612325 0.8818436271387675 0.9931563728612325 0.00684362713876755 0.9931563728612325 0.00684362713876755 0.9931563728612325 0.00684362713876755 0.9931563728612325 0.00684362713876755 0.1181563728612325 0.8818436271387675 0.9931563728612325 0.00684362713876755 0.9306563728612325 0.06934362713876754 0.1181563728612325 0.8818436271387675 0.1181563728612325 0.8818436271387675 0.1181563728612325 0.8818436271387675 0.05565637286123245 0.9443436271387676 0.9954375819074883 0.0045624180925117 0.9306563728612325 0.06934362713876754 0.9306563728612325 0.06934362713876754 0.1181563728612325 0.8818436271387675 0.9931563728612325 0.00684362713876755 0.9931563728612325 0.00684362713876755 0.1181563728612325 0.8818436271387675 0.1181563728612325 0.8818436271387675 0.1181563728612325 0.8818436271387675 0.1181563728612325 0.8818436271387675 0.1181563728612325 0.8818436271387675 0.9931563728612325 0.00684362713876755 0.1181563728612325 0.8818436271387675 0.9931563728612325 0.00684362713876755 0.1181563728612325 0.8818436271387675 0.9931563728612325 0.00684362713876755 0.1181563728612325 0.8818436271387675 0.1181563728612325 0.8818436271387675 0.1181563728612325 0.8818436271387675 0.1181563728612325 0.8818436271387675 0.05565637286123245 0.9443436271387676 0.9931563728612325 0.00684362713876755 0.9931563728612325 0.00684362713876755 0.1181563728612325 0.8818436271387675</probabilities>
		</cpt>
		<cpt id="ANIMATION">
			<state id="State0" />
			<state id="State1" />
			<parents>TITLE</parents>
			<probabilities>0.1241290095153767 0.8758709904846234 0.9991290095153766 0.0008709904846233685 0.9991290095153766 0.0008709904846233685 0.1241290095153767 0.8758709904846234 0.9991290095153766 0.0008709904846233685 0.9991290095153766 0.0008709904846233685 0.9991290095153766 0.0008709904846233685 0.9991290095153766 0.0008709904846233685 0.9991290095153766 0.0008709904846233685 0.9991290095153766 0.0008709904846233685 0.1241290095153767 0.8758709904846234 0.9991290095153766 0.0008709904846233685 0.1241290095153767 0.8758709904846234 0.1241290095153767 0.8758709904846234 0.9991290095153766 0.0008709904846233685 0.9991290095153766 0.0008709904846233685 0.9991290095153766 0.0008709904846233685 0.9991290095153766 0.0008709904846233685 0.9991290095153766 0.0008709904846233685 0.9991290095153766 0.0008709904846233685 0.9991290095153766 0.0008709904846233685 0.9991290095153766 0.0008709904846233685 0.9991290095153766 0.0008709904846233685 0.9991290095153766 0.0008709904846233685 0.9991290095153766 0.0008709904846233685 0.9991290095153766 0.0008709904846233685 0.1241290095153767 0.8758709904846234 0.9991290095153766 0.0008709904846233685 0.1241290095153767 0.8758709904846234 0.9991290095153766 0.0008709904846233685 0.9991290095153766 0.0008709904846233685 0.9991290095153766 0.0008709904846233685 0.1244193396769178 0.8755806603230822 0.1241290095153767 0.8758709904846234 0.9991290095153766 0.0008709904846233685 0.9991290095153766 0.0008709904846233685 0.1241290095153767 0.8758709904846234 0.1241290095153767 0.8758709904846234 0.9991290095153766 0.0008709904846233685 0.9991290095153766 0.0008709904846233685 0.9991290095153766 0.0008709904846233685 0.9991290095153766 0.0008709904846233685 0.9991290095153766 0.0008709904846233685 0.9991290095153766 0.0008709904846233685 0.9991290095153766 0.0008709904846233685 0.1241290095153767 0.8758709904846234 0.1241290095153767 0.8758709904846234 0.9991290095153766 0.0008709904846233685 0.9991290095153766 0.0008709904846233685 0.9991290095153766 0.0008709904846233685 0.9991290095153766 0.0008709904846233685 0.9991290095153766 0.0008709904846233685 0.9991290095153766 0.0008709904846233685 0.1241290095153767 0.8758709904846234 0.1241290095153767 0.8758709904846234 0.9366290095153766 0.06337099048462334</probabilities>
		</cpt>
		<cpt id="COMEDY">
			<state id="State0" />
			<state id="State1" />
			<parents>TITLE</parents>
			<probabilities>0.1095793075664834 0.8904206924335166 0.9845793075664834 0.01542069243351667 0.9845793075664834 0.01542069243351667 0.04707930756648335 0.9529206924335167 0.1095793075664834 0.8904206924335166 0.9845793075664834 0.01542069243351667 0.1095793075664834 0.8904206924335166 0.9845793075664834 0.01542069243351667 0.9845793075664834 0.01542069243351667 0.1095793075664834 0.8904206924335166 0.04707930756648335 0.9529206924335167 0.9220793075664834 0.07792069243351669 0.9845793075664834 0.01542069243351667 0.9845793075664834 0.01542069243351667 0.9845793075664834 0.01542069243351667 0.9845793075664834 0.01542069243351667 0.9845793075664834 0.01542069243351667 0.9845793075664834 0.01542069243351667 0.9845793075664834 0.01542069243351667 0.9845793075664834 0.01542069243351667 0.9845793075664834 0.01542069243351667 0.9845793075664834 0.01542069243351667 0.9220793075664834 0.07792069243351669 0.9845793075664834 0.01542069243351667 0.1095793075664834 0.8904206924335166 0.9845793075664834 0.01542069243351667 0.04707930756648335 0.9529206924335167 0.9845793075664834 0.01542069243351667 0.9220793075664834 0.07792069243351669 0.9845793075664834 0.01542069243351667 0.9845793075664834 0.01542069243351667 0.9220793075664834 0.07792069243351669 0.0730528717109889 0.9269471282890112 0.1095793075664834 0.8904206924335166 0.9845793075664834 0.01542069243351667 0.1095793075664834 0.8904206924335166 0.1095793075664834 0.8904206924335166 0.1095793075664834 0.8904206924335166 0.9845793075664834 0.01542069243351667 0.9220793075664834 0.07792069243351669 0.9845793075664834 0.01542069243351667 0.9845793075664834 0.01542069243351667 0.9845793075664834 0.01542069243351667 0.9845793075664834 0.01542069243351667 0.9220793075664834 0.07792069243351669 0.9845793075664834 0.01542069243351667 0.1095793075664834 0.8904206924335166 0.9220793075664834 0.07792069243351669 0.9220793075664834 0.07792069243351669 0.9845793075664834 0.01542069243351667 0.9220793075664834 0.07792069243351669 0.9845793075664834 0.01542069243351667 0.9845793075664834 0.01542069243351667 0.1095793075664834 0.8904206924335166 0.1095793075664834 0.8904206924335166 0.9220793075664834 0.07792069243351669</probabilities>
		</cpt>
		<cpt id="DRAMA">
			<state id="State0" />
			<state id="State1" />
			<parents>TITLE</parents>
			<probabilities>0.9709099988702195 0.02909000112978058 0.9709099988702195 0.02909000112978058 0.03340999887021943 0.9665900011297806 0.9709099988702195 0.02909000112978058 0.9084099988702195 0.09159000112978059 0.9084099988702195 0.09159000112978059 0.03340999887021943 0.9665900011297806 0.03340999887021943 0.9665900011297806 0.03340999887021943 0.9665900011297806 0.09590999887021945 0.9040900011297806 0.9709099988702195 0.02909000112978058 0.9709099988702195 0.02909000112978058 0.9709099988702195 0.02909000112978058 0.9084099988702195 0.09159000112978059 0.09590999887021945 0.9040900011297806 0.9084099988702195 0.09159000112978059 0.03340999887021943 0.9665900011297806 0.03340999887021943 0.9665900011297806 0.09590999887021945 0.9040900011297806 0.09590999887021945 0.9040900011297806 0.09590999887021945 0.9040900011297806 0.9084099988702195 0.09159000112978059 0.9709099988702195 0.02909000112978058 0.9084099988702195 0.09159000112978059 0.03340999887021943 0.9665900011297806 0.9709099988702195 0.02909000112978058 0.9709099988702195 0.02909000112978058 0.03340999887021943 0.9665900011297806 0.9709099988702195 0.02909000112978058 0.9084099988702195 0.09159000112978059 0.03340999887021943 0.9665900011297806 0.09590999887021945 0.9040900011297806 0.06393999924681296 0.9360600007531871 0.9709099988702195 0.02909000112978058 0.09590999887021945 0.9040900011297806 0.9709099988702195 0.02909000112978058 0.9084099988702195 0.09159000112978059 0.9709099988702195 0.02909000112978058 0.9709099988702195 0.02909000112978058 0.9709099988702195 0.02909000112978058 0.9709099988702195 0.02909000112978058 0.9709099988702195 0.02909000112978058 0.9709099988702195 0.02909000112978058 0.9084099988702195 0.09159000112978059 0.9709099988702195 0.02909000112978058 0.9084099988702195 0.09159000112978059 0.9709099988702195 0.02909000112978058 0.9709099988702195 0.02909000112978058 0.9084099988702195 0.09159000112978059 0.9084099988702195 0.09159000112978059 0.9709099988702195 0.02909000112978058 0.9084099988702195 0.09159000112978059 0.9709099988702195 0.02909000112978058 0.9709099988702195 0.02909000112978058 0.9084099988702195 0.09159000112978059 0.9709099988702195 0.02909000112978058</probabilities>
		</cpt>
		<cpt id="DOCUMENTARY">
			<state id="State0" />
			<state id="State1" />
			<parents>TITLE</parents>
			<probabilities>0.996560784441602 0.003439215558398045 0.996560784441602 0.003439215558398045 0.996560784441602 0.003439215558398045 0.996560784441602 0.003439215558398045 0.996560784441602 0.003439215558398045 0.996560784441602 0.003439215558398045 0.996560784441602 0.003439215558398045 0.996560784441602 0.003439215558398045 0.996560784441602 0.003439215558398045 0.934060784441602 0.06593921555839805 0.996560784441602 0.003439215558398045 0.996560784441602 0.003439215558398045 0.996560784441602 0.003439215558398045 0.996560784441602 0.003439215558398045 0.934060784441602 0.06593921555839805 0.121560784441602 0.878439215558398 0.996560784441602 0.003439215558398045 0.996560784441602 0.003439215558398045 0.996560784441602 0.003439215558398045 0.996560784441602 0.003439215558398045 0.996560784441602 0.003439215558398045 0.996560784441602 0.003439215558398045 0.996560784441602 0.003439215558398045 0.996560784441602 0.003439215558398045 0.996560784441602 0.003439215558398045 0.996560784441602 0.003439215558398045 0.996560784441602 0.003439215558398045 0.996560784441602 0.003439215558398045 0.996560784441602 0.003439215558398045 0.996560784441602 0.003439215558398045 0.996560784441602 0.003439215558398045 0.996560784441602 0.003439215558398045 0.9977071896277346 0.002292810372265364 0.996560784441602 0.003439215558398045 0.996560784441602 0.003439215558398045 0.996560784441602 0.003439215558398045 0.996560784441602 0.003439215558398045 0.934060784441602 0.06593921555839805 0.996560784441602 0.003439215558398045 0.996560784441602 0.003439215558398045 0.996560784441602 0.003439215558398045 0.996560784441602 0.003439215558398045 0.996560784441602 0.003439215558398045 0.996560784441602 0.003439215558398045 0.996560784441602 0.003439215558398045 0.996560784441602 0.003439215558398045 0.996560784441602 0.003439215558398045 0.996560784441602 0.003439215558398045 0.996560784441602 0.003439215558398045 0.996560784441602 0.003439215558398045 0.996560784441602 0.003439215558398045 0.996560784441602 0.003439215558398045 0.996560784441602 0.003439215558398045 0.934060784441602 0.06593921555839805 0.996560784441602 0.003439215558398045 0.996560784441602 0.003439215558398045</probabilities>
		</cpt>
		<cpt id="ROMANCE">
			<state id="State0" />
			<state id="State1" />
			<parents>TITLE</parents>
			<probabilities>0.9931391280272612 0.006860871972738825 0.9931391280272612 0.006860871972738825 0.9931391280272612 0.006860871972738825 0.9931391280272612 0.006860871972738825 0.9931391280272612 0.006860871972738825 0.9931391280272612 0.006860871972738825 0.9931391280272612 0.006860871972738825 0.9931391280272612 0.006860871972738825 0.9931391280272612 0.006860871972738825 0.1181391280272612 0.8818608719727388 0.9931391280272612 0.006860871972738825 0.9306391280272612 0.06936087197273885 0.9931391280272612 0.006860871972738825 0.9931391280272612 0.006860871972738825 0.9931391280272612 0.006860871972738825 0.9931391280272612 0.006860871972738825 0.9931391280272612 0.006860871972738825 0.9931391280272612 0.006860871972738825 0.9931391280272612 0.006860871972738825 0.9931391280272612 0.006860871972738825 0.9931391280272612 0.006860871972738825 0.9931391280272612 0.006860871972738825 0.9931391280272612 0.006860871972738825 0.9306391280272612 0.06936087197273885 0.9931391280272612 0.006860871972738825 0.9931391280272612 0.006860871972738825 0.9931391280272612 0.006860871972738825 0.9931391280272612 0.006860871972738825 0.1181391280272612 0.8818608719727388 0.9931391280272612 0.006860871972738825 0.9931391280272612 0.006860871972738825 0.9931391280272612 0.006860871972738825 0.9954260853515075 0.00457391464849255 0.9931391280272612 0.006860871972738825 0.9931391280272612 0.006860871972738825 0.9931391280272612 0.006860871972738825 0.1181391280272612 0.8818608719727388 0.9931391280272612 0.006860871972738825 0.9306391280272612 0.06936087197273885 0.9306391280272612 0.06936087197273885 0.9306391280272612 0.06936087197273885 0.9931391280272612 0.006860871972738825 0.9306391280272612 0.06936087197273885 0.9931391280272612 0.006860871972738825 0.9931391280272612 0.006860871972738825 0.9931391280272612 0.006860871972738825 0.9931391280272612 0.006860871972738825 0.9306391280272612 0.06936087197273885 0.9306391280272612 0.06936087197273885 0.9931391280272612 0.006860871972738825 0.9931391280272612 0.006860871972738825 0.9931391280272612 0.006860871972738825 0.9931391280272612 0.006860871972738825 0.9931391280272612 0.006860871972738825 0.9931391280272612 0.006860871972738825 0.9931391280272612 0.006860871972738825</probabilities>
		</cpt>
		<cpt id="SHORT">
			<state id="State0" />
			<state id="State1" />
			<parents>TITLE</parents>
			<probabilities>0.9297679874243878 0.07023201257561219 0.1172679874243878 0.8827320125756123 0.9922679874243878 0.00773201257561222 0.9922679874243878 0.00773201257561222 0.9922679874243878 0.00773201257561222 0.1172679874243878 0.8827320125756123 0.9922679874243878 0.00773201257561222 0.9922679874243878 0.00773201257561222 0.9922679874243878 0.00773201257561222 0.9922679874243878 0.00773201257561222 0.9922679874243878 0.00773201257561222 0.9922679874243878 0.00773201257561222 0.05476798742438777 0.9452320125756124 0.1172679874243878 0.8827320125756123 0.9922679874243878 0.00773201257561222 0.9922679874243878 0.00773201257561222 0.9922679874243878 0.00773201257561222 0.9922679874243878 0.00773201257561222 0.9922679874243878 0.00773201257561222 0.9922679874243878 0.00773201257561222 0.9297679874243878 0.07023201257561219 0.9297679874243878 0.07023201257561219 0.9922679874243878 0.00773201257561222 0.9922679874243878 0.00773201257561222 0.9922679874243878 0.00773201257561222 0.9922679874243878 0.00773201257561222 0.9922679874243878 0.00773201257561222 0.9922679874243878 0.00773201257561222 0.9922679874243878 0.00773201257561222 0.9922679874243878 0.00773201257561222 0.9922679874243878 0.00773201257561222 0.9922679874243878 0.00773201257561222 0.9948453249495919 0.00515467505040815 0.9922679874243878 0.00773201257561222 0.9922679874243878 0.00773201257561222 0.9922679874243878 0.00773201257561222 0.9922679874243878 0.00773201257561222 0.9922679874243878 0.00773201257561222 0.9922679874243878 0.00773201257561222 0.9922679874243878 0.00773201257561222 0.9922679874243878 0.00773201257561222 0.1172679874243878 0.8827320125756123 0.9922679874243878 0.00773201257561222 0.9922679874243878 0.00773201257561222 0.9922679874243878 0.00773201257561222 0.9922679874243878 0.00773201257561222 0.9922679874243878 0.00773201257561222 0.1172679874243878 0.8827320125756123 0.9922679874243878 0.00773201257561222 0.9922679874243878 0.00773201257561222 0.9922679874243878 0.00773201257561222 0.9922679874243878 0.00773201257561222 0.9922679874243878 0.00773201257561222 0.9297679874243878 0.07023201257561219 0.9922679874243878 0.00773201257561222 0.9297679874243878 0.07023201257561219</probabilities>
		</cpt>
	</nodes>
	<extensions>
		<genie version="1.0" app="GeNIe 2.0.5406.0" name="Network2" faultnameformat="nodestate">
			<node id="TITLE">
				<name>TITLE</name>
				<interior color="ffcc00" />
				<outline color="000080" />
				<font color="000000" name="Arial" size="8" />
				<position>486 514 537 545</position>
				<barchart active="true" width="128" height="1026" />
			</node>
			<node id="YEAR">
				<name>YEAR</name>
				<interior color="e5f6f7" />
				<outline color="000080" />
				<font color="000000" name="Arial" size="8" />
				<position>57 735 103 763</position>
				<barchart active="true" width="128" height="144" />
			</node>
			<node id="LENGTH">
				<name>LENGTH</name>
				<interior color="e5f6f7" />
				<outline color="000080" />
				<font color="000000" name="Arial" size="8" />
				<position>129 734 185 769</position>
				<barchart active="true" width="128" height="90" />
			</node>
			<node id="BUDGET">
				<name>BUDGET</name>
				<interior color="e5f6f7" />
				<outline color="000080" />
				<font color="000000" name="Arial" size="8" />
				<position>209 734 265 769</position>
				<barchart active="true" width="128" height="90" />
			</node>
			<node id="RATING">
				<name>RATING</name>
				<interior color="e5f6f7" />
				<outline color="000080" />
				<font color="000000" name="Arial" size="8" />
				<position>288 733 342 766</position>
				<barchart active="true" width="128" height="72" />
			</node>
			<node id="ACTION">
				<name>ACTION</name>
				<interior color="e5f6f7" />
				<outline color="000080" />
				<font color="000000" name="Arial" size="8" />
				<position>367 733 421 766</position>
				<barchart active="true" width="128" height="64" />
			</node>
			<node id="ANIMATION">
				<name>ANIMATION</name>
				<interior color="e5f6f7" />
				<outline color="000080" />
				<font color="000000" name="Arial" size="8" />
				<position>445 730 514 773</position>
				<barchart active="true" width="128" height="64" />
			</node>
			<node id="COMEDY">
				<name>COMEDY</name>
				<interior color="e5f6f7" />
				<outline color="000080" />
				<font color="000000" name="Arial" size="8" />
				<position>543 733 602 769</position>
				<barchart active="true" width="128" height="64" />
			</node>
			<node id="DRAMA">
				<name>DRAMA</name>
				<interior color="e5f6f7" />
				<outline color="000080" />
				<font color="000000" name="Arial" size="8" />
				<position>635 734 689 767</position>
				<barchart active="true" width="128" height="64" />
			</node>
			<node id="DOCUMENTARY">
				<name>DOCUMENTARY</name>
				<interior color="e5f6f7" />
				<outline color="000080" />
				<font color="000000" name="Arial" size="8" />
				<position>720 732 833 787</position>
				<barchart active="true" width="128" height="64" />
			</node>
			<node id="ROMANCE">
				<name>ROMANCE</name>
				<interior color="e5f6f7" />
				<outline color="000080" />
				<font color="000000" name="Arial" size="8" />
				<position>861 737 925 777</position>
				<barchart active="true" width="128" height="64" />
			</node>
			<node id="SHORT">
				<name>SHORT</name>
				<interior color="e5f6f7" />
				<outline color="000080" />
				<font color="000000" name="Arial" size="8" />
				<position>960 740 1011 771</position>
				<barchart active="true" width="128" height="64" />
			</node>
		</genie>
	</extensions>
</smile>
