<?xml version="1.0" encoding="ISO-8859-1"?>
<smile version="1.0" id="Network2" numsamples="1000" discsamples="10000">
	<nodes>
		<cpt id="TITLE">
			<state id="State0" />
			<state id="State1" />
			<state id="State2" />
			<state id="State3" />
			<state id="State4" />
			<state id="State5" />
			<state id="State6" />
			<state id="State7" />
			<state id="State8" />
			<state id="State9" />
			<state id="State10" />
			<state id="State11" />
			<state id="State12" />
			<state id="State13" />
			<state id="State14" />
			<state id="State15" />
			<state id="State16" />
			<state id="State17" />
			<state id="State18" />
			<state id="State19" />
			<state id="State20" />
			<state id="State21" />
			<state id="State22" />
			<state id="State23" />
			<state id="State24" />
			<state id="State25" />
			<state id="State26" />
			<state id="State27" />
			<state id="State28" />
			<state id="State29" />
			<state id="State30" />
			<state id="State31" />
			<state id="State32" />
			<state id="State33" />
			<state id="State34" />
			<state id="State35" />
			<state id="State36" />
			<state id="State37" />
			<state id="State38" />
			<state id="State39" />
			<state id="State40" />
			<state id="State41" />
			<state id="State42" />
			<state id="State43" />
			<state id="State44" />
			<state id="State45" />
			<state id="State46" />
			<state id="State47" />
			<state id="State48" />
			<state id="State49" />
			<state id="State50" />
			<state id="State51" />
			<state id="State52" />
			<state id="State53" />
			<state id="State54" />
			<state id="State55" />
			<probabilities>0.01790935672514622 0.01790935672514622 0.01778752436647175 0.01778752436647175 0.01778752436647175 0.01778752436647175 0.01778752436647175 0.01778752436647175 0.01778752436647175 0.01778752436647175 0.01778752436647175 0.01778752436647175 0.01778752436647175 0.01778752436647175 0.01778752436647175 0.01778752436647175 0.01778752436647175 0.01778752436647175 0.01778752436647175 0.01778752436647175 0.01778752436647175 0.01778752436647175 0.01778752436647175 0.01778752436647175 0.01778752436647175 0.01778752436647175 0.01778752436647175 0.01778752436647175 0.01778752436647175 0.01778752436647175 0.01778752436647175 0.01778752436647175 0.01803118908382068 0.01778752436647175 0.01778752436647175 0.01778752436647175 0.01778752436647175 0.01778752436647175 0.01778752436647175 0.01778752436647175 0.01778752436647175 0.01778752436647175 0.01778752436647175 0.01778752436647175 0.01778752436647175 0.01778752436647175 0.01778752436647175 0.01778752436647175 0.01778752436647175 0.01778752436647175 0.02119883040935677 0.01778752436647175 0.01778752436647175 0.01778752436647175 0.01778752436647175 0.01778752436647175</probabilities>
		</cpt>
		<cpt id="YEAR">
			<state id="State0" />
			<state id="State1" />
			<state id="State2" />
			<state id="State3" />
			<state id="State4" />
			<state id="State5" />
			<state id="State6" />
			<parents>TITLE</parents>
			<probabilities>0.506966870283792 0.2843755455010911 0.03420445780851517 0.1298736649988281 0.04395381730002153 0.0006256441077520334 0 0.756966870283792 0.03437554550109107 0.03420445780851517 0.1298736649988281 0.04395381730002153 0.0006256441077520334 0 0.006966870283792073 0.03437554550109107 0.03420445780851517 0.879873664998828 0.04395381730002153 0.0006256441077520334 0 0.006966870283792073 0.03437554550109107 0.03420445780851517 0.879873664998828 0.04395381730002153 0.0006256441077520334 0 0.006966870283792073 0.2843755455010911 0.5342044578085151 0.1298736649988281 0.04395381730002153 0.0006256441077520334 0 0.006966870283792075 0.03437554550109107 0.03420445780851517 0.1298736649988282 0.2939538173000215 0.0006256441077520335 0.5 0.006966870283792075 0.03437554550109108 0.03420445780851518 0.3798736649988282 0.04395381730002154 0.0006256441077520335 0.5 0.006966870283792073 0.03437554550109107 0.03420445780851517 0.3798736649988281 0.5439538173000215 0.0006256441077520334 0 0.006966870283792073 0.534375545501091 0.03420445780851517 0.1298736649988281 0.2939538173000215 0.0006256441077520334 0 0.006966870283792073 0.03437554550109107 0.03420445780851517 0.3798736649988281 0.5439538173000215 0.0006256441077520334 0 0.006966870283792073 0.03437554550109107 0.2842044578085152 0.1298736649988281 0.5439538173000215 0.0006256441077520334 0 0.006966870283792073 0.2843755455010911 0.03420445780851517 0.629873664998828 0.04395381730002153 0.0006256441077520334 0 0.006966870283792073 0.03437554550109107 0.5342044578085151 0.1298736649988281 0.2939538173000215 0.0006256441077520334 0 0.506966870283792 0.2843755455010911 0.03420445780851517 0.1298736649988281 0.04395381730002153 0.0006256441077520334 0 0.006966870283792075 0.03437554550109107 0.03420445780851517 0.1298736649988282 0.2939538173000215 0.500625644107752 0 0.006966870283792073 0.534375545501091 0.03420445780851517 0.3798736649988281 0.04395381730002153 0.0006256441077520334 0 0.006966870283792075 0.03437554550109108 0.03420445780851518 0.3798736649988282 0.04395381730002154 0.500625644107752 0 0.006966870283792073 0.03437554550109107 0.03420445780851517 0.879873664998828 0.04395381730002153 0.0006256441077520334 0 0.006966870283792073 0.03437554550109107 0.03420445780851517 0.879873664998828 0.04395381730002153 0.0006256441077520334 0 0.006966870283792077 0.03437554550109108 0.03420445780851518 0.6298736649988282 0.2939538173000216 0.0006256441077520336 0 0.006966870283792073 0.03437554550109107 0.2842044578085152 0.1298736649988281 0.5439538173000215 0.0006256441077520334 0 0.006966870283792075 0.03437554550109108 0.03420445780851518 0.3798736649988282 0.04395381730002154 0.0006256441077520335 0.5 0.006966870283792075 0.03437554550109108 0.03420445780851518 0.3798736649988282 0.04395381730002154 0.500625644107752 0 0.006966870283792073 0.03437554550109107 0.03420445780851517 0.3798736649988281 0.5439538173000215 0.0006256441077520334 0 0.006966870283792073 0.03437554550109107 0.03420445780851517 0.3798736649988281 0.5439538173000215 0.0006256441077520334 0 0.006966870283792075 0.03437554550109108 0.03420445780851518 0.3798736649988282 0.04395381730002154 0.500625644107752 0 0.006966870283792075 0.03437554550109108 0.2842044578085152 0.1298736649988282 0.04395381730002154 0.0006256441077520335 0.5 0.006966870283792075 0.2843755455010911 0.03420445780851518 0.1298736649988282 0.04395381730002154 0.0006256441077520335 0.5 0.006966870283792073 0.03437554550109107 0.03420445780851517 0.3798736649988281 0.5439538173000215 0.0006256441077520334 0 0.506966870283792 0.2843755455010911 0.03420445780851517 0.1298736649988281 0.04395381730002153 0.0006256441077520334 0 0.006966870283792075 0.03437554550109108 0.03420445780851518 0.3798736649988282 0.04395381730002154 0.0006256441077520335 0.5 0.006966870283792075 0.03437554550109108 0.03420445780851518 0.3798736649988282 0.04395381730002154 0.500625644107752 0 0.004644580189194716 0.02291703033406072 0.1894696385390101 0.2532491099992187 0.02930254486668102 0.000417096071834689 0.5 0.006966870283792073 0.03437554550109107 0.03420445780851517 0.879873664998828 0.04395381730002153 0.0006256441077520334 0 0.006966870283792075 0.03437554550109108 0.03420445780851518 0.3798736649988282 0.04395381730002154 0.0006256441077520335 0.5 0.006966870283792075 0.03437554550109108 0.03420445780851518 0.3798736649988282 0.04395381730002154 0.0006256441077520335 0.5 0.006966870283792073 0.03437554550109107 0.03420445780851517 0.3798736649988281 0.5439538173000215 0.0006256441077520334 0 0.006966870283792075 0.03437554550109107 0.03420445780851517 0.1298736649988282 0.2939538173000215 0.500625644107752 0 0.006966870283792075 0.03437554550109108 0.03420445780851518 0.3798736649988282 0.04395381730002154 0.500625644107752 0 0.006966870283792075 0.03437554550109108 0.03420445780851518 0.3798736649988282 0.04395381730002154 0.0006256441077520335 0.5 0.006966870283792075 0.03437554550109108 0.2842044578085152 0.1298736649988282 0.04395381730002154 0.500625644107752 0 0.006966870283792073 0.03437554550109107 0.03420445780851517 0.879873664998828 0.04395381730002153 0.0006256441077520334 0 0.006966870283792073 0.03437554550109107 0.5342044578085151 0.3798736649988281 0.04395381730002153 0.0006256441077520334 0 0.006966870283792075 0.03437554550109107 0.03420445780851517 0.1298736649988282 0.2939538173000215 0.0006256441077520335 0.5 0.006966870283792075 0.03437554550109108 0.03420445780851518 0.3798736649988282 0.04395381730002154 0.0006256441077520335 0.5 0.006966870283792073 0.03437554550109107 0.2842044578085152 0.629873664998828 0.04395381730002153 0.0006256441077520334 0 0.006966870283792075 0.03437554550109108 0.2842044578085152 0.1298736649988282 0.04395381730002154 0.500625644107752 0 0.006966870283792073 0.2843755455010911 0.03420445780851517 0.1298736649988281 0.5439538173000215 0.0006256441077520334 0 0.006966870283792073 0.03437554550109107 0.03420445780851517 0.1298736649988281 0.7939538173000214 0.0006256441077520334 0 0.006966870283792075 0.03437554550109108 0.2842044578085152 0.1298736649988282 0.04395381730002154 0.0006256441077520335 0.5 0.006966870283792075 0.03437554550109108 0.03420445780851518 0.3798736649988282 0.04395381730002154 0.0006256441077520335 0.5 0.006966870283792073 0.03437554550109107 0.03420445780851517 0.879873664998828 0.04395381730002153 0.0006256441077520334 0 0.006966870283792075 0.03437554550109108 0.03420445780851518 0.3798736649988282 0.04395381730002154 0.0006256441077520335 0.5 0.006966870283792073 0.534375545501091 0.03420445780851517 0.3798736649988281 0.04395381730002153 0.0006256441077520334 0 0.006966870283792073 0.2843755455010911 0.03420445780851517 0.629873664998828 0.04395381730002153 0.0006256441077520334 0 0.006966870283792073 0.03437554550109107 0.03420445780851517 0.3798736649988281 0.5439538173000215 0.0006256441077520334 0</probabilities>
		</cpt>
		<cpt id="LENGTH">
			<state id="State0" />
			<state id="State1" />
			<state id="State2" />
			<state id="State3" />
			<parents>TITLE</parents>
			<probabilities>0.5821271062864617 0.0958152612859508 0.2844106446496228 0.03764698777796467 0.08212710628646175 0.0958152612859508 0.7844106446496229 0.03764698777796467 0.08212710628646175 0.8458152612859509 0.03441064464962279 0.03764698777796467 0.8321271062864617 0.0958152612859508 0.03441064464962279 0.03764698777796467 0.08212710628646175 0.8458152612859509 0.03441064464962279 0.03764698777796467 0.3321271062864618 0.0958152612859508 0.5344106446496229 0.03764698777796467 0.08212710628646175 0.0958152612859508 0.03441064464962279 0.7876469877779646 0.08212710628646175 0.8458152612859509 0.03441064464962279 0.03764698777796467 0.08212710628646175 0.3458152612859508 0.03441064464962279 0.5376469877779647 0.3321271062864618 0.0958152612859508 0.03441064464962279 0.5376469877779647 0.08212710628646175 0.8458152612859509 0.03441064464962279 0.03764698777796467 0.08212710628646175 0.8458152612859509 0.03441064464962279 0.03764698777796467 0.08212710628646175 0.0958152612859508 0.7844106446496229 0.03764698777796467 0.3321271062864618 0.0958152612859508 0.5344106446496229 0.03764698777796467 0.3321271062864618 0.5958152612859509 0.03441064464962279 0.03764698777796467 0.5821271062864617 0.3458152612859508 0.03441064464962279 0.03764698777796467 0.3321271062864618 0.5958152612859509 0.03441064464962279 0.03764698777796467 0.5821271062864617 0.3458152612859508 0.03441064464962279 0.03764698777796467 0.3321271062864618 0.0958152612859508 0.03441064464962279 0.5376469877779647 0.3321271062864618 0.5958152612859509 0.03441064464962279 0.03764698777796467 0.08212710628646175 0.0958152612859508 0.2844106446496228 0.5376469877779647 0.08212710628646175 0.0958152612859508 0.2844106446496228 0.5376469877779647 0.08212710628646175 0.3458152612859508 0.03441064464962279 0.5376469877779647 0.08212710628646175 0.3458152612859508 0.03441064464962279 0.5376469877779647 0.08212710628646175 0.8458152612859509 0.03441064464962279 0.03764698777796467 0.08212710628646175 0.8458152612859509 0.03441064464962279 0.03764698777796467 0.8321271062864617 0.0958152612859508 0.03441064464962279 0.03764698777796467 0.8321271062864617 0.0958152612859508 0.03441064464962279 0.03764698777796467 0.08212710628646175 0.8458152612859509 0.03441064464962279 0.03764698777796467 0.08212710628646175 0.3458152612859508 0.03441064464962279 0.5376469877779647 0.3321271062864618 0.5958152612859509 0.03441064464962279 0.03764698777796467 0.08212710628646175 0.3458152612859508 0.03441064464962279 0.5376469877779647 0.7214180708576412 0.2305435075239672 0.02294042976641519 0.02509799185197645 0.8321271062864617 0.0958152612859508 0.03441064464962279 0.03764698777796467 0.08212710628646175 0.3458152612859508 0.03441064464962279 0.5376469877779647 0.08212710628646175 0.3458152612859508 0.03441064464962279 0.5376469877779647 0.5821271062864617 0.0958152612859508 0.03441064464962279 0.2876469877779647 0.08212710628646175 0.5958152612859509 0.03441064464962279 0.2876469877779647 0.08212710628646175 0.3458152612859508 0.03441064464962279 0.5376469877779647 0.3321271062864618 0.0958152612859508 0.03441064464962279 0.5376469877779647 0.08212710628646175 0.0958152612859508 0.03441064464962279 0.7876469877779646 0.08212710628646175 0.0958152612859508 0.5344106446496229 0.2876469877779647 0.08212710628646175 0.8458152612859509 0.03441064464962279 0.03764698777796467 0.08212710628646175 0.3458152612859508 0.5344106446496229 0.03764698777796467 0.3321271062864618 0.5958152612859509 0.03441064464962279 0.03764698777796467 0.5821271062864617 0.0958152612859508 0.03441064464962279 0.2876469877779647 0.08212710628646175 0.3458152612859508 0.03441064464962279 0.5376469877779647 0.3321271062864618 0.0958152612859508 0.5344106446496229 0.03764698777796467 0.3321271062864618 0.0958152612859508 0.03441064464962279 0.5376469877779647 0.08212710628646175 0.0958152612859508 0.03441064464962279 0.7876469877779646 0.08212710628646175 0.3458152612859508 0.03441064464962279 0.5376469877779647 0.08212710628646175 0.0958152612859508 0.03441064464962279 0.7876469877779646 0.08212710628646175 0.0958152612859508 0.03441064464962279 0.7876469877779646 0.5821271062864617 0.0958152612859508 0.2844106446496228 0.03764698777796467 0.08212710628646175 0.8458152612859509 0.03441064464962279 0.03764698777796467 0.08212710628646175 0.5958152612859509 0.2844106446496228 0.03764698777796467</probabilities>
		</cpt>
		<cpt id="BUDGET">
			<state id="State0" />
			<state id="State1" />
			<state id="State2" />
			<state id="State3" />
			<parents>TITLE</parents>
			<probabilities>0.01027394056766747 0.006826307245672725 0.9828672040871869 3.25480994728955e-005 0.01027394056766747 0.006826307245672725 0.4828672040871869 0.500032548099473 0.5102739405676675 0.006826307245672725 0.4828672040871869 3.25480994728955e-005 0.01027394056766747 0.006826307245672725 0.9828672040871869 3.25480994728955e-005 0.01027394056766747 0.006826307245672725 0.9828672040871869 3.25480994728955e-005 0.01027394056766747 0.5068263072456727 0.4828672040871869 3.25480994728955e-005 0.01027394056766747 0.006826307245672725 0.9828672040871869 3.25480994728955e-005 0.5102739405676675 0.006826307245672725 0.4828672040871869 3.25480994728955e-005 0.01027394056766747 0.006826307245672725 0.9828672040871869 3.25480994728955e-005 0.01027394056766747 0.006826307245672725 0.4828672040871869 0.500032548099473 0.01027394056766747 0.006826307245672725 0.4828672040871869 0.500032548099473 0.01027394056766747 0.006826307245672725 0.9828672040871869 3.25480994728955e-005 0.01027394056766747 0.006826307245672725 0.4828672040871869 0.500032548099473 0.01027394056766747 0.006826307245672725 0.4828672040871869 0.500032548099473 0.01027394056766747 0.5068263072456727 0.4828672040871869 3.25480994728955e-005 0.01027394056766747 0.006826307245672725 0.4828672040871869 0.500032548099473 0.5102739405676675 0.006826307245672725 0.4828672040871869 3.25480994728955e-005 0.01027394056766747 0.006826307245672725 0.4828672040871869 0.500032548099473 0.01027394056766747 0.006826307245672725 0.9828672040871869 3.25480994728955e-005 0.01027394056766747 0.006826307245672725 0.4828672040871869 0.500032548099473 0.01027394056766747 0.006826307245672725 0.9828672040871869 3.25480994728955e-005 0.01027394056766747 0.006826307245672725 0.9828672040871869 3.25480994728955e-005 0.01027394056766747 0.006826307245672725 0.9828672040871869 3.25480994728955e-005 0.01027394056766747 0.006826307245672725 0.9828672040871869 3.25480994728955e-005 0.01027394056766747 0.006826307245672725 0.4828672040871869 0.500032548099473 0.01027394056766747 0.006826307245672725 0.9828672040871869 3.25480994728955e-005 0.01027394056766747 0.006826307245672725 0.9828672040871869 3.25480994728955e-005 0.01027394056766747 0.006826307245672725 0.9828672040871869 3.25480994728955e-005 0.01027394056766747 0.006826307245672725 0.4828672040871869 0.500032548099473 0.01027394056766747 0.006826307245672725 0.9828672040871869 3.25480994728955e-005 0.01027394056766747 0.006826307245672725 0.9828672040871869 3.25480994728955e-005 0.01027394056766747 0.006826307245672725 0.9828672040871869 3.25480994728955e-005 0.173515960378445 0.004550871497115151 0.821911469391458 2.169873298191183e-005 0.01027394056766747 0.006826307245672725 0.9828672040871869 3.25480994728955e-005 0.01027394056766747 0.006826307245672725 0.9828672040871869 3.25480994728955e-005 0.01027394056766747 0.006826307245672725 0.9828672040871869 3.25480994728955e-005 0.01027394056766747 0.006826307245672725 0.9828672040871869 3.25480994728955e-005 0.01027394056766747 0.006826307245672725 0.9828672040871869 3.25480994728955e-005 0.01027394056766747 0.006826307245672725 0.9828672040871869 3.25480994728955e-005 0.01027394056766747 0.006826307245672725 0.9828672040871869 3.25480994728955e-005 0.01027394056766747 0.006826307245672725 0.9828672040871869 3.25480994728955e-005 0.01027394056766747 0.006826307245672725 0.9828672040871869 3.25480994728955e-005 0.01027394056766747 0.006826307245672725 0.9828672040871869 3.25480994728955e-005 0.01027394056766747 0.006826307245672725 0.4828672040871869 0.500032548099473 0.01027394056766747 0.006826307245672725 0.9828672040871869 3.25480994728955e-005 0.01027394056766747 0.006826307245672725 0.9828672040871869 3.25480994728955e-005 0.01027394056766747 0.006826307245672725 0.9828672040871869 3.25480994728955e-005 0.01027394056766747 0.5068263072456727 0.4828672040871869 3.25480994728955e-005 0.01027394056766747 0.006826307245672725 0.9828672040871869 3.25480994728955e-005 0.01027394056766747 0.006826307245672725 0.9828672040871869 3.25480994728955e-005 0.2602739405676675 0.006826307245672725 0.7328672040871869 3.254809947292325e-005 0.01027394056766747 0.006826307245672725 0.9828672040871869 3.25480994728955e-005 0.01027394056766747 0.006826307245672725 0.9828672040871869 3.25480994728955e-005 0.01027394056766747 0.006826307245672725 0.9828672040871869 3.25480994728955e-005 0.01027394056766747 0.006826307245672725 0.9828672040871869 3.25480994728955e-005 0.01027394056766747 0.006826307245672725 0.9828672040871869 3.25480994728955e-005</probabilities>
		</cpt>
		<cpt id="RATING">
			<state id="r7" />
			<state id="r8" />
			<state id="r9" />
			<parents>TITLE</parents>
			<probabilities>0.9863458127854295 0.01024073746003086 0.0034134497545396 0.9863458127854295 0.01024073746003086 0.0034134497545396 0.4863458127854295 0.5102407374600309 0.0034134497545396 0.9863458127854295 0.01024073746003086 0.0034134497545396 0.9863458127854295 0.01024073746003086 0.0034134497545396 0.9863458127854295 0.01024073746003086 0.0034134497545396 0.4863458127854295 0.5102407374600309 0.0034134497545396 0.9863458127854295 0.01024073746003086 0.0034134497545396 0.4863458127854295 0.5102407374600309 0.0034134497545396 0.9863458127854295 0.01024073746003086 0.0034134497545396 0.9863458127854295 0.01024073746003086 0.0034134497545396 0.9863458127854295 0.01024073746003086 0.0034134497545396 0.9863458127854295 0.01024073746003086 0.0034134497545396 0.9863458127854295 0.01024073746003086 0.0034134497545396 0.4863458127854295 0.01024073746003086 0.5034134497545396 0.9863458127854295 0.01024073746003086 0.0034134497545396 0.9863458127854295 0.01024073746003086 0.0034134497545396 0.4863458127854295 0.5102407374600309 0.0034134497545396 0.4863458127854295 0.5102407374600309 0.0034134497545396 0.9863458127854295 0.01024073746003086 0.0034134497545396 0.4863458127854295 0.5102407374600309 0.0034134497545396 0.9863458127854295 0.01024073746003086 0.0034134497545396 0.9863458127854295 0.01024073746003086 0.0034134497545396 0.9863458127854295 0.01024073746003086 0.0034134497545396 0.9863458127854295 0.01024073746003086 0.0034134497545396 0.9863458127854295 0.01024073746003086 0.0034134497545396 0.9863458127854295 0.01024073746003086 0.0034134497545396 0.9863458127854295 0.01024073746003086 0.0034134497545396 0.4863458127854295 0.5102407374600309 0.0034134497545396 0.9863458127854295 0.01024073746003086 0.0034134497545396 0.4863458127854295 0.5102407374600309 0.0034134497545396 0.4863458127854295 0.5102407374600309 0.0034134497545396 0.9908972085236198 0.006827158306687241 0.002275633169693067 0.9863458127854295 0.01024073746003086 0.0034134497545396 0.4863458127854295 0.5102407374600309 0.0034134497545396 0.4863458127854295 0.5102407374600309 0.0034134497545396 0.4863458127854295 0.5102407374600309 0.0034134497545396 0.9863458127854295 0.01024073746003086 0.0034134497545396 0.4863458127854295 0.5102407374600309 0.0034134497545396 0.9863458127854295 0.01024073746003086 0.0034134497545396 0.9863458127854295 0.01024073746003086 0.0034134497545396 0.9863458127854295 0.01024073746003086 0.0034134497545396 0.9863458127854295 0.01024073746003086 0.0034134497545396 0.4863458127854295 0.5102407374600309 0.0034134497545396 0.9863458127854295 0.01024073746003086 0.0034134497545396 0.9863458127854295 0.01024073746003086 0.0034134497545396 0.4863458127854295 0.5102407374600309 0.0034134497545396 0.2363458127854295 0.2602407374600309 0.5034134497545396 0.4863458127854295 0.5102407374600309 0.0034134497545396 0.4863458127854295 0.01024073746003086 0.5034134497545396 0.4863458127854295 0.5102407374600309 0.0034134497545396 0.4863458127854295 0.5102407374600309 0.0034134497545396 0.9863458127854295 0.01024073746003086 0.0034134497545396 0.9863458127854295 0.01024073746003086 0.0034134497545396 0.4863458127854295 0.5102407374600309 0.0034134497545396 0.9863458127854295 0.01024073746003086 0.0034134497545396</probabilities>
		</cpt>
		<cpt id="ACTION">
			<state id="State0" />
			<state id="State1" />
			<parents>TITLE</parents>
			<probabilities>0.9726254914449298 0.0273745085550702 0.9726254914449298 0.0273745085550702 0.9726254914449298 0.0273745085550702 0.9726254914449298 0.0273745085550702 0.4726254914449298 0.5273745085550702 0.4726254914449298 0.5273745085550702 0.9726254914449298 0.0273745085550702 0.9726254914449298 0.0273745085550702 0.2226254914449298 0.7773745085550702 0.9726254914449298 0.0273745085550702 0.4726254914449298 0.5273745085550702 0.9726254914449298 0.0273745085550702 0.9726254914449298 0.0273745085550702 0.9726254914449298 0.0273745085550702 0.9726254914449298 0.0273745085550702 0.9726254914449298 0.0273745085550702 0.9726254914449298 0.0273745085550702 0.9726254914449298 0.0273745085550702 0.9726254914449298 0.0273745085550702 0.9726254914449298 0.0273745085550702 0.4726254914449298 0.5273745085550702 0.9726254914449298 0.0273745085550702 0.9726254914449298 0.0273745085550702 0.9726254914449298 0.0273745085550702 0.9726254914449298 0.0273745085550702 0.4726254914449298 0.5273745085550702 0.9726254914449298 0.0273745085550702 0.7226254914449298 0.2773745085550702 0.4726254914449298 0.5273745085550702 0.4726254914449298 0.5273745085550702 0.4726254914449298 0.5273745085550702 0.2226254914449298 0.7773745085550702 0.9817503276299532 0.0182496723700468 0.7226254914449298 0.2773745085550702 0.7226254914449298 0.2773745085550702 0.4726254914449298 0.5273745085550702 0.9726254914449298 0.0273745085550702 0.9726254914449298 0.0273745085550702 0.4726254914449298 0.5273745085550702 0.4726254914449298 0.5273745085550702 0.4726254914449298 0.5273745085550702 0.4726254914449298 0.5273745085550702 0.4726254914449298 0.5273745085550702 0.9726254914449298 0.0273745085550702 0.4726254914449298 0.5273745085550702 0.9726254914449298 0.0273745085550702 0.4726254914449298 0.5273745085550702 0.9726254914449298 0.0273745085550702 0.4726254914449298 0.5273745085550702 0.4726254914449298 0.5273745085550702 0.4726254914449298 0.5273745085550702 0.4726254914449298 0.5273745085550702 0.2226254914449298 0.7773745085550702 0.9726254914449298 0.0273745085550702 0.9726254914449298 0.0273745085550702 0.4726254914449298 0.5273745085550702</probabilities>
		</cpt>
		<cpt id="ANIMATION">
			<state id="State0" />
			<state id="State1" />
			<parents>TITLE</parents>
			<probabilities>0.4965160380615065 0.5034839619384934 0.9965160380615066 0.003483961938493474 0.9965160380615066 0.003483961938493474 0.4965160380615065 0.5034839619384934 0.9965160380615066 0.003483961938493474 0.9965160380615066 0.003483961938493474 0.9965160380615066 0.003483961938493474 0.9965160380615066 0.003483961938493474 0.9965160380615066 0.003483961938493474 0.9965160380615066 0.003483961938493474 0.4965160380615065 0.5034839619384934 0.9965160380615066 0.003483961938493474 0.4965160380615065 0.5034839619384934 0.4965160380615065 0.5034839619384934 0.9965160380615066 0.003483961938493474 0.9965160380615066 0.003483961938493474 0.9965160380615066 0.003483961938493474 0.9965160380615066 0.003483961938493474 0.9965160380615066 0.003483961938493474 0.9965160380615066 0.003483961938493474 0.9965160380615066 0.003483961938493474 0.9965160380615066 0.003483961938493474 0.9965160380615066 0.003483961938493474 0.9965160380615066 0.003483961938493474 0.9965160380615066 0.003483961938493474 0.9965160380615066 0.003483961938493474 0.4965160380615065 0.5034839619384934 0.9965160380615066 0.003483961938493474 0.4965160380615065 0.5034839619384934 0.9965160380615066 0.003483961938493474 0.9965160380615066 0.003483961938493474 0.9965160380615066 0.003483961938493474 0.4976773587076711 0.502322641292329 0.4965160380615065 0.5034839619384934 0.9965160380615066 0.003483961938493474 0.9965160380615066 0.003483961938493474 0.4965160380615065 0.5034839619384934 0.4965160380615065 0.5034839619384934 0.9965160380615066 0.003483961938493474 0.9965160380615066 0.003483961938493474 0.9965160380615066 0.003483961938493474 0.9965160380615066 0.003483961938493474 0.9965160380615066 0.003483961938493474 0.9965160380615066 0.003483961938493474 0.9965160380615066 0.003483961938493474 0.4965160380615065 0.5034839619384934 0.4965160380615065 0.5034839619384934 0.9965160380615066 0.003483961938493474 0.9965160380615066 0.003483961938493474 0.9965160380615066 0.003483961938493474 0.9965160380615066 0.003483961938493474 0.9965160380615066 0.003483961938493474 0.9965160380615066 0.003483961938493474 0.4965160380615065 0.5034839619384934 0.4965160380615065 0.5034839619384934 0.7465160380615065 0.2534839619384935</probabilities>
		</cpt>
		<cpt id="COMEDY">
			<state id="State0" />
			<state id="State1" />
			<parents>TITLE</parents>
			<probabilities>0.4383172302659334 0.5616827697340666 0.9383172302659334 0.06168276973406665 0.9383172302659334 0.06168276973406665 0.1883172302659334 0.8116827697340667 0.4383172302659334 0.5616827697340666 0.9383172302659334 0.06168276973406665 0.4383172302659334 0.5616827697340666 0.9383172302659334 0.06168276973406665 0.9383172302659334 0.06168276973406665 0.4383172302659334 0.5616827697340666 0.1883172302659334 0.8116827697340667 0.6883172302659334 0.3116827697340667 0.9383172302659334 0.06168276973406665 0.9383172302659334 0.06168276973406665 0.9383172302659334 0.06168276973406665 0.9383172302659334 0.06168276973406665 0.9383172302659334 0.06168276973406665 0.9383172302659334 0.06168276973406665 0.9383172302659334 0.06168276973406665 0.9383172302659334 0.06168276973406665 0.9383172302659334 0.06168276973406665 0.9383172302659334 0.06168276973406665 0.6883172302659334 0.3116827697340667 0.9383172302659334 0.06168276973406665 0.4383172302659334 0.5616827697340666 0.9383172302659334 0.06168276973406665 0.1883172302659334 0.8116827697340667 0.9383172302659334 0.06168276973406665 0.6883172302659334 0.3116827697340667 0.9383172302659334 0.06168276973406665 0.9383172302659334 0.06168276973406665 0.6883172302659334 0.3116827697340667 0.2922114868439556 0.7077885131560444 0.4383172302659334 0.5616827697340666 0.9383172302659334 0.06168276973406665 0.4383172302659334 0.5616827697340666 0.4383172302659334 0.5616827697340666 0.4383172302659334 0.5616827697340666 0.9383172302659334 0.06168276973406665 0.6883172302659334 0.3116827697340667 0.9383172302659334 0.06168276973406665 0.9383172302659334 0.06168276973406665 0.9383172302659334 0.06168276973406665 0.9383172302659334 0.06168276973406665 0.6883172302659334 0.3116827697340667 0.9383172302659334 0.06168276973406665 0.4383172302659334 0.5616827697340666 0.6883172302659334 0.3116827697340667 0.6883172302659334 0.3116827697340667 0.9383172302659334 0.06168276973406665 0.6883172302659334 0.3116827697340667 0.9383172302659334 0.06168276973406665 0.9383172302659334 0.06168276973406665 0.4383172302659334 0.5616827697340666 0.4383172302659334 0.5616827697340666 0.6883172302659334 0.3116827697340667</probabilities>
		</cpt>
		<cpt id="DRAMA">
			<state id="State0" />
			<state id="State1" />
			<parents>TITLE</parents>
			<probabilities>0.8836399954808778 0.1163600045191223 0.8836399954808778 0.1163600045191223 0.1336399954808777 0.8663600045191224 0.8836399954808778 0.1163600045191223 0.6336399954808777 0.3663600045191223 0.6336399954808777 0.3663600045191223 0.1336399954808777 0.8663600045191224 0.1336399954808777 0.8663600045191224 0.1336399954808777 0.8663600045191224 0.3836399954808778 0.6163600045191223 0.8836399954808778 0.1163600045191223 0.8836399954808778 0.1163600045191223 0.8836399954808778 0.1163600045191223 0.6336399954808777 0.3663600045191223 0.3836399954808778 0.6163600045191223 0.6336399954808777 0.3663600045191223 0.1336399954808777 0.8663600045191224 0.1336399954808777 0.8663600045191224 0.3836399954808778 0.6163600045191223 0.3836399954808778 0.6163600045191223 0.3836399954808778 0.6163600045191223 0.6336399954808777 0.3663600045191223 0.8836399954808778 0.1163600045191223 0.6336399954808777 0.3663600045191223 0.1336399954808777 0.8663600045191224 0.8836399954808778 0.1163600045191223 0.8836399954808778 0.1163600045191223 0.1336399954808777 0.8663600045191224 0.8836399954808778 0.1163600045191223 0.6336399954808777 0.3663600045191223 0.1336399954808777 0.8663600045191224 0.3836399954808778 0.6163600045191223 0.2557599969872518 0.7442400030127482 0.8836399954808778 0.1163600045191223 0.3836399954808778 0.6163600045191223 0.8836399954808778 0.1163600045191223 0.6336399954808777 0.3663600045191223 0.8836399954808778 0.1163600045191223 0.8836399954808778 0.1163600045191223 0.8836399954808778 0.1163600045191223 0.8836399954808778 0.1163600045191223 0.8836399954808778 0.1163600045191223 0.8836399954808778 0.1163600045191223 0.6336399954808777 0.3663600045191223 0.8836399954808778 0.1163600045191223 0.6336399954808777 0.3663600045191223 0.8836399954808778 0.1163600045191223 0.8836399954808778 0.1163600045191223 0.6336399954808777 0.3663600045191223 0.6336399954808777 0.3663600045191223 0.8836399954808778 0.1163600045191223 0.6336399954808777 0.3663600045191223 0.8836399954808778 0.1163600045191223 0.8836399954808778 0.1163600045191223 0.6336399954808777 0.3663600045191223 0.8836399954808778 0.1163600045191223</probabilities>
		</cpt>
		<cpt id="DOCUMENTARY">
			<state id="State0" />
			<state id="State1" />
			<parents>TITLE</parents>
			<probabilities>0.9862431377664078 0.01375686223359218 0.9862431377664078 0.01375686223359218 0.9862431377664078 0.01375686223359218 0.9862431377664078 0.01375686223359218 0.9862431377664078 0.01375686223359218 0.9862431377664078 0.01375686223359218 0.9862431377664078 0.01375686223359218 0.9862431377664078 0.01375686223359218 0.9862431377664078 0.01375686223359218 0.7362431377664078 0.2637568622335922 0.9862431377664078 0.01375686223359218 0.9862431377664078 0.01375686223359218 0.9862431377664078 0.01375686223359218 0.9862431377664078 0.01375686223359218 0.7362431377664078 0.2637568622335922 0.4862431377664078 0.5137568622335922 0.9862431377664078 0.01375686223359218 0.9862431377664078 0.01375686223359218 0.9862431377664078 0.01375686223359218 0.9862431377664078 0.01375686223359218 0.9862431377664078 0.01375686223359218 0.9862431377664078 0.01375686223359218 0.9862431377664078 0.01375686223359218 0.9862431377664078 0.01375686223359218 0.9862431377664078 0.01375686223359218 0.9862431377664078 0.01375686223359218 0.9862431377664078 0.01375686223359218 0.9862431377664078 0.01375686223359218 0.9862431377664078 0.01375686223359218 0.9862431377664078 0.01375686223359218 0.9862431377664078 0.01375686223359218 0.9862431377664078 0.01375686223359218 0.9908287585109386 0.009171241489061455 0.9862431377664078 0.01375686223359218 0.9862431377664078 0.01375686223359218 0.9862431377664078 0.01375686223359218 0.9862431377664078 0.01375686223359218 0.7362431377664078 0.2637568622335922 0.9862431377664078 0.01375686223359218 0.9862431377664078 0.01375686223359218 0.9862431377664078 0.01375686223359218 0.9862431377664078 0.01375686223359218 0.9862431377664078 0.01375686223359218 0.9862431377664078 0.01375686223359218 0.9862431377664078 0.01375686223359218 0.9862431377664078 0.01375686223359218 0.9862431377664078 0.01375686223359218 0.9862431377664078 0.01375686223359218 0.9862431377664078 0.01375686223359218 0.9862431377664078 0.01375686223359218 0.9862431377664078 0.01375686223359218 0.9862431377664078 0.01375686223359218 0.9862431377664078 0.01375686223359218 0.7362431377664078 0.2637568622335922 0.9862431377664078 0.01375686223359218 0.9862431377664078 0.01375686223359218</probabilities>
		</cpt>
		<cpt id="ROMANCE">
			<state id="State0" />
			<state id="State1" />
			<parents>TITLE</parents>
			<probabilities>0.9725565121090447 0.0274434878909553 0.9725565121090447 0.0274434878909553 0.9725565121090447 0.0274434878909553 0.9725565121090447 0.0274434878909553 0.9725565121090447 0.0274434878909553 0.9725565121090447 0.0274434878909553 0.9725565121090447 0.0274434878909553 0.9725565121090447 0.0274434878909553 0.9725565121090447 0.0274434878909553 0.4725565121090447 0.5274434878909553 0.9725565121090447 0.0274434878909553 0.7225565121090447 0.2774434878909553 0.9725565121090447 0.0274434878909553 0.9725565121090447 0.0274434878909553 0.9725565121090447 0.0274434878909553 0.9725565121090447 0.0274434878909553 0.9725565121090447 0.0274434878909553 0.9725565121090447 0.0274434878909553 0.9725565121090447 0.0274434878909553 0.9725565121090447 0.0274434878909553 0.9725565121090447 0.0274434878909553 0.9725565121090447 0.0274434878909553 0.9725565121090447 0.0274434878909553 0.7225565121090447 0.2774434878909553 0.9725565121090447 0.0274434878909553 0.9725565121090447 0.0274434878909553 0.9725565121090447 0.0274434878909553 0.9725565121090447 0.0274434878909553 0.4725565121090447 0.5274434878909553 0.9725565121090447 0.0274434878909553 0.9725565121090447 0.0274434878909553 0.9725565121090447 0.0274434878909553 0.9817043414060298 0.0182956585939702 0.9725565121090447 0.0274434878909553 0.9725565121090447 0.0274434878909553 0.9725565121090447 0.0274434878909553 0.4725565121090447 0.5274434878909553 0.9725565121090447 0.0274434878909553 0.7225565121090447 0.2774434878909553 0.7225565121090447 0.2774434878909553 0.7225565121090447 0.2774434878909553 0.9725565121090447 0.0274434878909553 0.7225565121090447 0.2774434878909553 0.9725565121090447 0.0274434878909553 0.9725565121090447 0.0274434878909553 0.9725565121090447 0.0274434878909553 0.9725565121090447 0.0274434878909553 0.7225565121090447 0.2774434878909553 0.7225565121090447 0.2774434878909553 0.9725565121090447 0.0274434878909553 0.9725565121090447 0.0274434878909553 0.9725565121090447 0.0274434878909553 0.9725565121090447 0.0274434878909553 0.9725565121090447 0.0274434878909553 0.9725565121090447 0.0274434878909553 0.9725565121090447 0.0274434878909553</probabilities>
		</cpt>
		<cpt id="SHORT">
			<state id="State0" />
			<state id="State1" />
			<parents>TITLE</parents>
			<probabilities>0.7190719496975511 0.2809280503024489 0.4690719496975511 0.5309280503024488 0.9690719496975513 0.03092805030244888 0.9690719496975513 0.03092805030244888 0.9690719496975513 0.03092805030244888 0.4690719496975511 0.5309280503024488 0.9690719496975513 0.03092805030244888 0.9690719496975513 0.03092805030244888 0.9690719496975513 0.03092805030244888 0.9690719496975513 0.03092805030244888 0.9690719496975513 0.03092805030244888 0.9690719496975513 0.03092805030244888 0.2190719496975511 0.7809280503024489 0.4690719496975511 0.5309280503024488 0.9690719496975513 0.03092805030244888 0.9690719496975513 0.03092805030244888 0.9690719496975513 0.03092805030244888 0.9690719496975513 0.03092805030244888 0.9690719496975513 0.03092805030244888 0.9690719496975513 0.03092805030244888 0.7190719496975511 0.2809280503024489 0.7190719496975511 0.2809280503024489 0.9690719496975513 0.03092805030244888 0.9690719496975513 0.03092805030244888 0.9690719496975513 0.03092805030244888 0.9690719496975513 0.03092805030244888 0.9690719496975513 0.03092805030244888 0.9690719496975513 0.03092805030244888 0.9690719496975513 0.03092805030244888 0.9690719496975513 0.03092805030244888 0.9690719496975513 0.03092805030244888 0.9690719496975513 0.03092805030244888 0.9793812997983674 0.02061870020163259 0.9690719496975513 0.03092805030244888 0.9690719496975513 0.03092805030244888 0.9690719496975513 0.03092805030244888 0.9690719496975513 0.03092805030244888 0.9690719496975513 0.03092805030244888 0.9690719496975513 0.03092805030244888 0.9690719496975513 0.03092805030244888 0.9690719496975513 0.03092805030244888 0.4690719496975511 0.5309280503024488 0.9690719496975513 0.03092805030244888 0.9690719496975513 0.03092805030244888 0.9690719496975513 0.03092805030244888 0.9690719496975513 0.03092805030244888 0.9690719496975513 0.03092805030244888 0.4690719496975511 0.5309280503024488 0.9690719496975513 0.03092805030244888 0.9690719496975513 0.03092805030244888 0.9690719496975513 0.03092805030244888 0.9690719496975513 0.03092805030244888 0.9690719496975513 0.03092805030244888 0.7190719496975511 0.2809280503024489 0.9690719496975513 0.03092805030244888 0.7190719496975511 0.2809280503024489</probabilities>
		</cpt>
	</nodes>
	<extensions>
		<genie version="1.0" app="GeNIe 2.0.5494.1" name="Network2" faultnameformat="nodestate">
			<node id="TITLE">
				<name>TITLE</name>
				<interior color="ffcc00" />
				<outline color="000080" />
				<font color="000000" name="Arial" size="8" />
				<position>486 234 537 265</position>
			</node>
			<node id="YEAR">
				<name>YEAR</name>
				<interior color="e5f6f7" />
				<outline color="000080" />
				<font color="000000" name="Arial" size="8" />
				<position>57 455 103 483</position>
			</node>
			<node id="LENGTH">
				<name>LENGTH</name>
				<interior color="e5f6f7" />
				<outline color="000080" />
				<font color="000000" name="Arial" size="8" />
				<position>129 454 185 489</position>
			</node>
			<node id="BUDGET">
				<name>BUDGET</name>
				<interior color="e5f6f7" />
				<outline color="000080" />
				<font color="000000" name="Arial" size="8" />
				<position>209 454 265 489</position>
			</node>
			<node id="RATING">
				<name>RATING</name>
				<interior color="e5f6f7" />
				<outline color="000080" />
				<font color="000000" name="Arial" size="8" />
				<position>288 453 342 486</position>
			</node>
			<node id="ACTION">
				<name>ACTION</name>
				<interior color="e5f6f7" />
				<outline color="000080" />
				<font color="000000" name="Arial" size="8" />
				<position>367 453 421 486</position>
			</node>
			<node id="ANIMATION">
				<name>ANIMATION</name>
				<interior color="e5f6f7" />
				<outline color="000080" />
				<font color="000000" name="Arial" size="8" />
				<position>445 450 514 493</position>
			</node>
			<node id="COMEDY">
				<name>COMEDY</name>
				<interior color="e5f6f7" />
				<outline color="000080" />
				<font color="000000" name="Arial" size="8" />
				<position>543 453 602 489</position>
			</node>
			<node id="DRAMA">
				<name>DRAMA</name>
				<interior color="e5f6f7" />
				<outline color="000080" />
				<font color="000000" name="Arial" size="8" />
				<position>635 454 689 487</position>
			</node>
			<node id="DOCUMENTARY">
				<name>DOCUMENTARY</name>
				<interior color="e5f6f7" />
				<outline color="000080" />
				<font color="000000" name="Arial" size="8" />
				<position>720 452 833 507</position>
			</node>
			<node id="ROMANCE">
				<name>ROMANCE</name>
				<interior color="e5f6f7" />
				<outline color="000080" />
				<font color="000000" name="Arial" size="8" />
				<position>861 457 925 497</position>
			</node>
			<node id="SHORT">
				<name>SHORT</name>
				<interior color="e5f6f7" />
				<outline color="000080" />
				<font color="000000" name="Arial" size="8" />
				<position>960 460 1011 491</position>
			</node>
		</genie>
	</extensions>
</smile>
